{
  "layers": [
    {
      "input_size": 784,
      "neurons": [
        {
          "weights": [
            0.4607258780196899,
            -0.6112973122075278,
            0.5721707958899123,
            -0.2165451974518997,
            -0.9895826167127344,
            0.45787689045714774,
            -0.6712652278464468,
            0.276234436618789,
            -0.37584786985760466,
            0.7630851390536255,
            -0.7645698334883106,
            0.8978960638647866,
            0.8053963294791686,
            -0.795964941481986,
            -0.7567534724652589,
            -0.6827811769698671,
            -0.7959928087479957,
            -0.7093965786473375,
            0.6379685239170698,
            0.5989568756791921,
            -0.02128925894783351,
            0.9875591541820763,
            -0.050728802861101485,
            0.5500569953652246,
            0.10902520126919968,
            0.8210391157595451,
            -0.18558477157161657,
            0.8415974178941927,
            -0.7838178647937466,
            -0.13160690738975478,
            -0.25553913808064954,
            -0.9850482479520344,
            0.6883410277957638,
            -0.07232053643336678,
            0.5668455121760845,
            -0.7180398459047759,
            0.9518606861230066,
            -0.768743097460483,
            0.31827513975638083,
            -0.14227761090431662,
            -0.17711003455092156,
            -0.6148279616028619,
            0.07838609221098522,
            -0.910145070835845,
            -0.7292871532097844,
            0.9022445223111497,
            -0.16695791919478253,
            -0.7840956426549723,
            0.08310985157983453,
            0.7649925806712288,
            0.5519799421868443,
            -0.48591485013604263,
            0.6853876866526685,
            0.603960837447173,
            0.3166903727582766,
            0.019791580094261407,
            0.2594412669587116,
            0.335671314309568,
            -0.7115466155297616,
            0.6859055401902618,
            0.142876238964043,
            -0.20924302869524314,
            -0.8511095303658902,
            -0.23787377057236747,
            -0.2445547411267257,
            -0.743005721036684,
            0.5522961743505038,
            0.8391906143563042,
            -0.8778925445200927,
            0.5024899336407831,
            0.7840977126111853,
            0.6084206503651466,
            -0.5761058934665757,
            -0.3783027926180722,
            0.8456154941463853,
            -0.7012022235478464,
            0.5887533455063351,
            0.5214554678676316,
            -0.8988890171025834,
            0.5520631002445666,
            -0.9119871250330722,
            0.923530395849484,
            -0.40201289768233917,
            -0.4450707456730978,
            -0.6154672552751319,
            -0.739155449566792,
            0.005917922225874284,
            0.025693925952754437,
            0.8446377160481944,
            0.46427331822576634,
            0.9568358656560205,
            0.5179644673075956,
            -0.10107261179290418,
            -0.10099029874700166,
            -0.17723728689557433,
            0.6903605617745185,
            -0.43897612823426424,
            -0.13063215572348688,
            -0.5923814405068302,
            0.9371135565092023,
            -0.9745819844698439,
            -0.4212300205763707,
            -0.03537445790877529,
            -0.9444723513853348,
            -0.3696939469992098,
            0.7237909390714687,
            0.9309519091450028,
            0.09507323720819068,
            -0.7527948869688292,
            0.3341806468744468,
            -0.5586150762498616,
            0.19600154057841013,
            -0.30682159045101653,
            0.9437189636780279,
            0.08145574676993039,
            -0.5128130195846297,
            0.5048981132676776,
            -0.40320072362779263,
            -0.35102138903442,
            0.45892481362676857,
            0.9506608549435738,
            0.6684859166800561,
            -0.023486881772339232,
            0.7075733604840461,
            -0.6837368547986394,
            0.6384934368511506,
            0.45280089014025193,
            -0.945446790130523,
            -0.8398073098342823,
            0.11664988939378437,
            -0.7708654424461479,
            0.1918827970645953,
            0.5862930140774991,
            -0.6263209743794896,
            0.38596809709351704,
            0.3440963605168847,
            -0.6263572354750999,
            0.6518913134760687,
            -0.022225259636685202,
            0.6722739863755636,
            -0.7317467839570604,
            0.2356554069065604,
            0.9856985233088174,
            -0.41524134824859954,
            -0.9578914078506676,
            -0.9699083916126967,
            0.47209391769037234,
            -0.2548764221235448,
            0.47215277777162945,
            -0.24947596988157086,
            0.1645796021348971,
            0.4484176810893774,
            0.060148115221875305,
            0.4436395809849307,
            -1.0810678260215463,
            -0.0033584164816597376,
            -0.16150410543458835,
            0.14837558916477459,
            0.8918511797962726,
            -0.2622639272453476,
            -0.2811653075590451,
            0.4262300787825723,
            -0.23394412244164486,
            0.9063632416898998,
            -0.2888967978370006,
            -0.1012511805171419,
            -0.4790071665703148,
            -0.5867323809428522,
            0.42129105669523037,
            0.42965107408109726,
            0.6521038565922754,
            0.025382362211208886,
            -0.14640208412081446,
            0.7426506135713972,
            -0.8641758775120414,
            -0.048784377226025834,
            0.7320855754643495,
            0.5383411538154023,
            0.37588918670401256,
            -0.6392751306707123,
            0.44648421973330527,
            0.1717564413772469,
            0.5004204203818212,
            -0.557874650872845,
            -1.0647028779746877,
            0.4568860240634302,
            -0.7170600106622264,
            -0.7338527681699384,
            1.0156578111677255,
            -0.6991945192072676,
            0.0996643296590635,
            0.047544136413570956,
            0.02829402372850309,
            -0.08952193006729905,
            0.3110107593843146,
            0.7376370936409458,
            0.3806850414573806,
            -0.9868828235898972,
            0.03193455034145621,
            -0.7323667594230994,
            -0.8016716700831754,
            -0.4319875197403126,
            -0.9932615337850164,
            -0.595672976394694,
            0.2357965167620631,
            -0.1924272199398359,
            -0.8373192267048641,
            -0.7828815129758617,
            -0.6775190094231945,
            -0.03320201161403475,
            -1.051188507977741,
            -0.5185072631597276,
            0.8263656757141122,
            0.4240161412249023,
            0.15542401997401492,
            -0.4788925972676942,
            0.3028292896645393,
            -0.7135067533101358,
            -0.6037398891908788,
            0.3651301534041303,
            1.0697998402253632,
            0.7912222165513677,
            0.38798001347825956,
            0.7799310688920814,
            -0.18466802986961262,
            0.7687803298207732,
            0.8970767915164254,
            0.6980088821526176,
            0.7571524973289142,
            -0.6000838647736818,
            0.3695376193293802,
            0.5775937992577922,
            0.17458157993819295,
            0.9323664371130751,
            -0.8504508669730071,
            -0.4612344027174109,
            0.19544875223361097,
            -0.09853707758563397,
            -0.8315573097324676,
            -0.3136188830387925,
            0.0470246840899965,
            -0.27222068938535365,
            0.3889320191872502,
            -0.37527895346854545,
            0.36904973388212114,
            0.31704553227344306,
            0.042233285353257696,
            0.986663361121857,
            -0.6491575061247727,
            -0.46223265288946447,
            0.945925530346665,
            0.5855435008328262,
            -0.5045044294205554,
            -0.02004397066873954,
            -0.1795059681357009,
            0.6643039544826685,
            0.4377906821294961,
            0.7465570372747035,
            0.7616176206277254,
            0.471064820185794,
            0.2850713769779383,
            0.6609971493014511,
            0.3384540085022553,
            0.5837178150326278,
            -0.8275455633604383,
            0.7506204731485231,
            0.6223745236993832,
            -0.7188454578642692,
            -0.1061476734271,
            -0.40635439199333917,
            -0.2501165041516944,
            0.7437568540255787,
            -0.1540449390293033,
            -0.9288070504612899,
            0.4332567526628481,
            -0.18335680219931152,
            -0.017125962915705395,
            -0.39629817053966826,
            0.8708823213874642,
            0.5978346907810135,
            0.7577347826391228,
            -0.8479360214248801,
            0.2318330373593108,
            -0.45121152831892314,
            0.5934626848227357,
            0.7838856871796596,
            -0.3110561274204802,
            0.6493901217960352,
            0.5817650480108196,
            0.889544037795428,
            -0.2360154905048712,
            0.7138266241808944,
            -0.4058308199134372,
            -0.4999719466139644,
            -0.8774558796862088,
            0.6976226121980814,
            0.8174567659029643,
            0.5248265388947868,
            0.35848446699362435,
            -0.4920519868894058,
            -0.038739212350420126,
            -0.06262407707249376,
            -0.42529169142125833,
            0.08299268675768236,
            0.9242369744903133,
            -0.7224501881406705,
            0.20677817554426442,
            0.2021777952371322,
            0.2705475401236648,
            0.08924715237603098,
            -0.13058441270492827,
            -0.0236224508584423,
            0.6719663206576754,
            -0.744108327106688,
            0.9094242180794826,
            0.014168316012636751,
            0.568327832049582,
            0.09280441251033716,
            0.2749712310285348,
            -0.6386931551215148,
            1.0828586477509767,
            0.37384573397834064,
            0.05332441533039622,
            0.46524747877994216,
            -0.9789856337937651,
            -0.6688909730859175,
            0.28200412214317705,
            -0.3965563204357943,
            0.5710474776718008,
            -0.7477747241506024,
            0.8078293612268049,
            0.200909596659438,
            -0.47838533738971667,
            -0.07924836385703506,
            0.7034386744409483,
            0.49140097306962294,
            -0.6814052349226187,
            -0.8257275815729965,
            -0.30011739664442305,
            0.28686985500575934,
            0.4626263082779091,
            0.2828725467827694,
            0.4866806348382195,
            0.6433146982208444,
            -0.733675368397046,
            0.5076761314751759,
            -0.017812984194893997,
            0.49484131968924366,
            -0.03251954331449968,
            0.8816337093420487,
            0.0463192582946474,
            -0.2897224557302578,
            -0.9916527020346565,
            -0.9212156768136979,
            -0.44551936021736704,
            -0.5265560540629065,
            -0.20066430228368998,
            -0.752744191083289,
            -0.38940144574182317,
            -0.48829304147461977,
            0.43682576624461683,
            0.2885226055315879,
            0.7534062029230055,
            0.6418320152234303,
            0.3788844367631832,
            -0.702619965855865,
            0.7579491116541172,
            -0.8256104750715267,
            0.07613588197112826,
            -0.4455797637417773,
            0.5665530316096162,
            -0.6882688033496058,
            -0.8488066558055696,
            0.392308918865622,
            -0.6970915200996629,
            -0.6575922946841198,
            0.8355509523605614,
            -0.7981326689107014,
            -0.7955129046710491,
            0.8653464413816228,
            -0.9728723444288285,
            -0.9729857870935236,
            0.3917957712483386,
            -0.03314816429299677,
            -0.3272993098655756,
            -0.2821279684542388,
            0.9409645136322287,
            0.226865611270435,
            0.602179676604171,
            0.34080965305952576,
            0.898922052535711,
            0.26861023429960307,
            0.25562285057872636,
            -0.45581477182639873,
            0.16529928167834473,
            -0.31658818253317195,
            -0.9198830661325451,
            -0.6541118040091752,
            0.25207088809972394,
            -0.7727836811277625,
            -0.6165095745348315,
            -0.7220328700940628,
            -0.1567971610575955,
            0.5366990685783748,
            0.20279694512864838,
            -0.56490459827848,
            -0.0101992379632505,
            -0.22125787617061393,
            0.9958493477692382,
            -0.1629535971432089,
            0.33518681676947065,
            0.34199293792461083,
            0.7858826401699327,
            0.5511350622767089,
            -0.4223147030374742,
            0.2435624563574264,
            0.08289547238549255,
            0.6967642709616783,
            0.7140099553274786,
            0.587911316530414,
            -0.7162808883404526,
            -0.07236871712420223,
            -0.003080325698442632,
            0.7303989160785638,
            0.535536898300479,
            0.4251006234116821,
            0.21243939874219364,
            -0.007904175583472376,
            -0.9007129866145851,
            0.043670591442872365,
            -0.05701232392147633,
            -0.1872493841159638,
            0.8181058150253883,
            0.6046045140246993,
            -0.8667955405409421,
            -0.21153743079133977,
            0.40019784584213725,
            -0.2496547323150221,
            -0.8513632867613496,
            0.8660297909302127,
            -0.43465517460228414,
            0.7428104489581397,
            0.19546389915586984,
            0.4197144748540909,
            0.6655587156533721,
            -0.5268764688581,
            -0.37985319686097024,
            0.4836751960729544,
            0.6031392214205447,
            0.09633493102660773,
            0.8405822915921455,
            0.781819377052701,
            0.43803631636598894,
            -0.7150953570710072,
            -0.3263033384845072,
            0.07793135658573379,
            -0.8571569167710864,
            0.7289079638055334,
            -0.2887939473009403,
            -0.9276568862698198,
            0.14166843814889427,
            0.4947034416724757,
            -0.555641375696983,
            -0.29690831638591414,
            -0.09698368520384062,
            -0.7913065570727272,
            0.7105213109605764,
            -0.7191065692665095,
            -0.8515295588467822,
            -0.39434383563196,
            0.2650140443228631,
            -0.960456693832577,
            0.3452776112672526,
            -0.12329273353339475,
            0.7538334216491734,
            0.22992397492124228,
            0.7037934428309072,
            -0.04091781589945298,
            0.5394854255259526,
            -0.7943655682112369,
            -0.08747996620617707,
            0.06658497750034185,
            -0.7651161543193467,
            -0.13422312184979415,
            -0.9377871138256448,
            0.3234641709524062,
            -0.7658850328605105,
            -0.1062894494628037,
            -0.09907010323155163,
            0.038783874036014895,
            0.14097221026616738,
            -0.8147459353778876,
            0.29212334811817514,
            -0.02255295266275364,
            0.44924995321288186,
            0.3154835353543669,
            -0.6793533019169733,
            -0.05979819248106502,
            0.4424731034522879,
            -0.2006138278061337,
            -0.813707873066325,
            0.3107261960520832,
            -0.049527457772543526,
            0.18212468155350248,
            0.9414723128014144,
            -0.41882201501796334,
            0.9453681081268601,
            -0.9607556289217648,
            0.8468544584165887,
            0.8925042975803135,
            -0.6990348574127826,
            0.48245669623930176,
            -0.9474845283707045,
            0.7179622268602769,
            0.5144545772498584,
            -0.30102603762714525,
            -0.8866393025424276,
            0.33593993764479796,
            -0.4025530182969844,
            -0.5343799626755752,
            0.9272391588717401,
            -0.07958704111394582,
            -0.9848459261768411,
            0.29426260466670234,
            0.6568952085810562,
            -0.8946955506706272,
            -0.13147192753314663,
            -0.8399570749629796,
            0.16961351396852326,
            0.039718794062332696,
            -0.21517074908967038,
            -0.20708667785554002,
            0.9239427962189464,
            -0.09232356485480109,
            0.3825835454050578,
            0.8356817675518345,
            -0.18117168109657653,
            -0.36330528262913686,
            0.8784970274154453,
            0.5256128937796425,
            -0.2391751347283272,
            0.4738468249047205,
            -0.9497692576976067,
            -0.7893998182855744,
            -0.14018375765714775,
            0.681238440179302,
            0.8996508488392015,
            0.7536899829563888,
            0.826080701258144,
            0.8252535205961541,
            0.39488772103094677,
            -0.3260509831020275,
            -0.9337509073237374,
            0.30496523751458077,
            0.530367802318216,
            -0.08481379334769613,
            0.16599902523454724,
            0.921415295722377,
            0.7360395767014574,
            0.48050632117440717,
            0.5979427539237316,
            -0.597150025332805,
            0.07464050886994551,
            0.8361528118503887,
            0.920553181942079,
            -0.3578565116444274,
            -0.2803086180663804,
            -0.6489188696065836,
            -0.5280663102522755,
            0.6500876380354497,
            0.36922692573733673,
            0.7750411494556684,
            -0.6235706325946865,
            0.5301508982957008,
            0.30288079139599117,
            0.8434108834376586,
            -0.9610729152632949,
            -0.4992767054742822,
            0.6879957752021025,
            0.34188714404642845,
            -0.489821803082559,
            0.7395929937815734,
            0.14819714469372466,
            -0.21643818586810873,
            0.04855648921135354,
            -0.5745431472961239,
            0.1382184053739018,
            -0.7208832459184111,
            0.5742415148260234,
            0.4629202647853736,
            -0.08927720224259608,
            0.8471134267027091,
            0.14123973438796383,
            -0.6926715925089562,
            -0.21767499835246867,
            0.8293775194971132,
            -0.9273587742531575,
            0.2673611000504589,
            -0.17417342079085674,
            0.7906624221933297,
            -0.539304562101262,
            0.15553183410992882,
            -0.07545722186899856,
            0.803827770919657,
            -0.7985555416522017,
            -0.266988691957296,
            0.7360374689531753,
            -0.20435750925786106,
            -0.06017480801122203,
            0.8698016623639698,
            -0.5250732331505309,
            -1.0014439712815524,
            0.3853551604200792,
            -0.9248300170973696,
            0.5447993052498121,
            0.3525458287029364,
            0.26514811201661503,
            -0.5308959029062601,
            0.649413736260451,
            -0.8092434936383287,
            0.32487556876737567,
            -0.47995507672770327,
            0.9933251289084362,
            0.28149457511398596,
            0.6153528137730507,
            -0.5675456830168342,
            -0.9108013541496276,
            -0.7206825912560929,
            0.6343558636511759,
            0.9431796901023805,
            -0.2523167325346347,
            0.2741838218845795,
            0.6507912150906986,
            -0.6635887438574493,
            0.366909870614807,
            0.9661241987058028,
            0.5362740126302945,
            -0.04852885761394391,
            -0.3304597470033706,
            0.2171953169435712,
            0.25644583387828646,
            -0.09092513196838567,
            0.8179415118422464,
            -0.6413548728208445,
            -0.7671578297454851,
            -0.5429470439940074,
            0.2516735861853334,
            -0.7311690409819225,
            0.1046519323005312,
            -0.7564127455346007,
            0.8026584696624028,
            -0.3661865595375841,
            -0.44922737452258754,
            -0.4586730630147016,
            -0.7082369400144569,
            -0.9297020757577547,
            0.3408760236115186,
            -0.7561060187414834,
            -1.004340315300769,
            0.07704379022310688,
            -0.18410802670779652,
            -0.4371949700199367,
            -0.44256857165463614,
            0.6984168122344373,
            -0.4208523489762239,
            -0.9187493688720797,
            0.6911580004108304,
            -0.6373262052861246,
            0.9198070087286747,
            0.1311918009025268,
            0.671477721058797,
            -0.05936974531983963,
            0.4977448155483146,
            0.7658543939157854,
            0.40871928062315077,
            -0.81120828627455,
            0.13799264082194024,
            -0.1005273651441122,
            -0.2702227506862085,
            0.24134310207667092,
            0.8949967163661224,
            0.7888727292344779,
            0.8734193446260906,
            -0.406058832666483,
            -0.38635185320905074,
            -0.09750144820306032,
            -0.20397929073554175,
            0.7699503058178966,
            -0.5193476088988949,
            0.21028587818928002,
            -0.3771171725237767,
            0.1254517017259169,
            -0.5641959968825176,
            -0.7111406056873276,
            0.6054566874101719,
            -0.3548443927345136,
            -0.39105181264669175,
            -0.4350234651796008,
            -0.8130471535943413,
            0.7296942498997556,
            0.09388334169021362,
            -0.6718188567201662,
            0.2453980980678665,
            -0.03087169092608574,
            0.09422919300085257,
            0.19656252660506154,
            -0.8167068789997455,
            0.39262491120197307,
            -0.8391502715836975,
            -0.04509168253089734,
            0.4217113961104919,
            -0.11927934464236904,
            -0.9613893145771014,
            -0.027960394829919234,
            -0.2528858111505859,
            -0.567973433535947,
            0.3749186210668654,
            -0.32319116705230455,
            0.6005188832885404,
            -0.15280244106812826,
            -0.4793465224121475,
            -0.03671568949112722,
            0.6224919938495342,
            -0.14288738928742473,
            -0.48358586402769355,
            0.6536600552760816,
            -0.564420783471212,
            -0.5444770174624525,
            0.42014389661653717,
            -0.2157542567077031,
            -0.3637841932559007,
            -0.17764604662442635,
            0.26679548770126343,
            0.5640959316476274,
            0.2767814725760408,
            0.5943562863016483,
            0.33885293063005206,
            -0.6215857070344687,
            -0.03314875657420439,
            0.9488316128570099,
            0.628063063931019,
            0.6217667100497547,
            0.9245707570659014,
            -0.8568076943439498,
            -0.22101805089023627,
            0.3200872036509538,
            -0.6826765060331215,
            -0.08761773553635029,
            0.9784852841305302,
            -0.8127949527311144,
            -0.7647414311829708,
            -0.017469536341014447,
            0.5322300568198235,
            0.07544808117209834,
            -0.337543702439945,
            0.8186498188114884,
            -0.6512607181140133,
            0.603513249507037,
            -0.8788564371743623,
            -0.24518450895300492,
            -0.12049862783218845,
            0.7177126503846321,
            0.4077956684432652,
            -0.3598081763511218,
            -0.4096956611110311,
            0.1878727700494569,
            0.6729709337706136,
            -0.5308855523455092,
            0.04215457436505743,
            0.6025729658115323,
            -0.2518129446278147,
            -0.44852572916394845,
            -0.98997651633519,
            -0.43586914988750763,
            0.8721712042626553,
            -0.3109145934913996,
            -0.39991858146274994,
            -0.45326296839308267,
            0.16880765248590768,
            -0.9677517821515644,
            -0.6180368351063656,
            0.7381307880844661,
            0.6597951007257676,
            0.5369088190721392
          ],
          "bias": -0.02456135167003026
        },
        {
          "weights": [
            0.45542065289360645,
            -0.6400052747698448,
            -0.19238806981254863,
            -0.07458609415221651,
            -0.29766195193912637,
            0.3910151995700919,
            0.8201992540516649,
            -0.8330337259120473,
            -0.2889790368329257,
            0.3439885336065238,
            -0.4983709536592462,
            0.20637594754318633,
            -0.5669994529343212,
            0.23700385104342359,
            0.8627248474776299,
            0.4677452555799184,
            -0.6329931064650354,
            -0.8863426189305017,
            -0.6450018761433416,
            0.16688340029477478,
            -0.38371253869936117,
            -0.17539603803703363,
            0.12563102643844504,
            -0.5517998330512714,
            -0.214986133210177,
            -0.8571461891518191,
            -0.5596048101552851,
            0.964784340386567,
            -0.3692587431411922,
            0.18469959162128236,
            0.7518942720723305,
            -0.7951718739428331,
            0.7893994143329857,
            0.8517067602079094,
            -0.9741897478144752,
            -0.7852089505494038,
            0.3680502690251124,
            -0.38914657167999556,
            0.8173423810846242,
            0.41911891391153283,
            0.3365852740877162,
            0.5116766325731629,
            -0.27730235087868454,
            0.9558541990375998,
            0.21133249760108058,
            0.49323270569175426,
            0.48796858833996604,
            0.15762939065747794,
            0.02326241939823981,
            -0.7670419113459113,
            0.7100320512319394,
            0.90712742804097,
            0.08828345471688537,
            0.9930089714863988,
            0.34428640481061623,
            -0.8283097083235083,
            0.5632799732909912,
            0.4581709869864081,
            -0.49329633786957716,
            0.17148075956213438,
            0.9100544763077534,
            0.14283465201119583,
            0.5674289898797407,
            -0.5060097222927424,
            -0.8810734817450105,
            -0.49399818407488505,
            -0.05855110063942594,
            -0.44495867060955174,
            0.9317918014193906,
            0.60986430188413,
            -0.35096922279332343,
            0.7531843976623367,
            0.7505197741447092,
            -0.21541086035655602,
            0.9604718418191284,
            0.03509854408527994,
            -0.20500242621353906,
            0.24265146057561635,
            0.21326591519962995,
            0.8039916082806866,
            -0.0061395138166739915,
            0.6406102852166347,
            0.1433961955619869,
            0.6059225929628269,
            0.37443374118196515,
            0.7719329601865879,
            0.07573742100123226,
            0.9700912454453348,
            -0.7439822355546115,
            -0.687660937124462,
            0.6370546360998594,
            -0.9197970981204397,
            -0.8519136578753873,
            0.4108790750037577,
            0.9154800204169947,
            -0.5879934263438188,
            0.006378516444267324,
            -0.9341392790381216,
            -0.8112372597107229,
            -0.7515657679449197,
            -0.07314002622969361,
            0.04440739126950467,
            0.8942569177698179,
            0.529145374778667,
            -0.3668775462385847,
            -0.9158300161826967,
            -0.877251636873309,
            -0.4021458548585117,
            0.693735028030267,
            0.40350250072796023,
            -0.5088822043419401,
            0.26680593134366903,
            0.5223997516147862,
            -0.6751891883028203,
            -0.7304063348095999,
            0.6230379982693681,
            0.21728500133857168,
            0.30835155316910795,
            0.8792727211102827,
            -0.3983540149775852,
            0.3579849779158232,
            -0.11350232246610313,
            0.750009681241044,
            0.9516453553931737,
            0.359283523106984,
            0.20569455509540052,
            -0.15912631656110832,
            0.3436976817806768,
            0.8152760413891219,
            0.7072571071780025,
            -0.13024424266076456,
            -0.44203289426259523,
            -0.5304033185638456,
            -0.1678284004928772,
            0.5436463103316974,
            0.10407717132771094,
            -0.24827955486435754,
            -0.2875297317027521,
            0.9867119741616981,
            -0.49829819306166523,
            0.5555933652454126,
            0.9773606007803495,
            -0.437409533168138,
            0.021953178361645037,
            0.46496833008799227,
            0.8519615995742102,
            0.34747110126232156,
            -0.08377956943411284,
            0.915730073495724,
            0.7206643770770649,
            0.3489761893116905,
            -0.12857642380416093,
            -0.7973189146016925,
            0.40889329201288016,
            0.4826923125540391,
            -0.7095044796332587,
            -0.6863060684851999,
            -0.19016574133837477,
            0.314917352600299,
            -0.10150845862836223,
            -0.1612795160909482,
            0.4428698488951041,
            0.4655996142275463,
            -0.9413691874971292,
            -0.47716393537614143,
            -0.4790250605821737,
            -0.8340493838416141,
            0.7712828421242475,
            -0.7855010211861004,
            -0.15934811314284825,
            0.20699975878243415,
            -0.6635662735039947,
            -0.40832353517176856,
            -0.3547804608046479,
            0.035870005867863146,
            -0.09478123818963993,
            -0.4109799771812134,
            -0.27797168668715644,
            0.751484038121058,
            -0.5130982530951195,
            0.9599665047038889,
            0.12056119422278243,
            0.13630039510451458,
            0.8041392877405529,
            -0.5559784846041621,
            -0.6940614191204425,
            -0.6741017088432425,
            0.41936935446305434,
            0.7935322395085612,
            -0.17992695754250115,
            0.2358525022140947,
            0.8080901862883385,
            0.9416936936909995,
            0.38187601718831843,
            -0.12804834641849588,
            -0.10163813727277397,
            -0.9266726777541436,
            -0.6114920879459453,
            -0.9865950543599437,
            0.9255721198950341,
            0.37243966689136926,
            0.5334342596056547,
            -0.6568416781265234,
            0.8715938223254295,
            -0.5731810541026553,
            -0.720187415742108,
            0.44502551794038536,
            0.5570953474407518,
            -0.33327735879223225,
            0.6530793582366055,
            0.7668797853419489,
            0.31791929124325474,
            0.6047222188226823,
            -0.5166470124955215,
            -0.3440442487233207,
            0.4091365714689884,
            -0.44571109421243615,
            0.16117767990213097,
            -0.408257688600855,
            -0.6207104296778478,
            -0.13381529052987143,
            0.15488465069964907,
            -0.23288647867137569,
            -0.5550383378897578,
            -0.6498230789604673,
            0.5781943482595127,
            -0.9053788055353135,
            0.5159633873448182,
            -0.7734638881998372,
            0.2743395673049729,
            -0.46672547601100295,
            0.5476242564206217,
            0.313411638570105,
            -0.8796279330151215,
            0.3837214301603205,
            -0.27033939987989203,
            -0.7841838188942162,
            -0.2704198932296779,
            -0.5193418320175336,
            -0.07972864866220887,
            0.003507788947309304,
            -0.9567654284532073,
            -0.6464530044660024,
            -0.9587245832657942,
            -0.9159677941176008,
            0.8474562141195792,
            0.7733535547560172,
            0.37804606755634507,
            -0.803110765134487,
            0.08553550567214321,
            -0.14867004280819204,
            0.2801266318574078,
            0.6587631957123803,
            -0.0010648168046017226,
            -0.13756936074160003,
            0.9448049932424261,
            -0.8339646602299516,
            -0.9361246580779183,
            0.5756805812411836,
            0.03907733125754452,
            0.5533657328270793,
            -0.08849002957036528,
            0.38801698541256224,
            0.8438190562424895,
            -0.8086593657109816,
            0.8875991767255392,
            -0.16249717272824785,
            0.46140932720295563,
            -0.13188305480613635,
            0.976538562473199,
            -0.48212659881843795,
            0.6010274290468748,
            -0.8285574710270428,
            0.49123952578719654,
            -0.7654866683583065,
            -0.841663933726419,
            0.8726265990224138,
            -0.46648335560588855,
            0.6774256855163635,
            0.8924377859627046,
            0.28957426698658373,
            -0.48922569304149427,
            -0.6464255573688311,
            0.06594122905226892,
            -0.6091212021148905,
            -0.877754958069112,
            0.2756814546957059,
            -0.2158958491161815,
            0.5559005923423518,
            0.2548823066428888,
            0.39656590582171375,
            -0.757837441532672,
            0.11476860144716436,
            -0.4011862379801695,
            0.14938475645750565,
            -0.8515166313447505,
            -0.5329433170702479,
            0.5983173984226899,
            -0.171608481442273,
            0.5293441713575102,
            -0.6772134401115968,
            0.5500994239165773,
            -0.04417912642668723,
            -0.2985802575622828,
            0.5752543937313834,
            0.47420393646410536,
            0.7973128482023106,
            0.9128829658891677,
            -0.579358541406046,
            -0.4430342854319269,
            -0.40116900370247244,
            -0.1800148664430974,
            0.7850635669742195,
            -0.974224048683455,
            -0.4915868531630191,
            0.9936760280493531,
            -0.16727501013338922,
            0.16017294362233678,
            -0.3625883909129136,
            -0.6789585510387196,
            -0.15683170292723222,
            -0.7042630252759812,
            -1.039414835921859,
            0.34277197458610753,
            0.5997012370277898,
            -0.323512945993187,
            0.3838286376715066,
            0.12978992633363443,
            -0.7428006121881404,
            -0.7181824230462698,
            0.08933942229540473,
            -0.7650561383860927,
            0.520729092084285,
            0.6799416342007986,
            0.019004924028588565,
            -0.0911783863811948,
            -0.1623629059771292,
            -0.15880383103043672,
            0.8698284475154927,
            0.014548495638972064,
            0.6966592618846542,
            0.4988085932050935,
            0.7181589015739632,
            -0.6842850853477335,
            -0.10410550697567789,
            -0.36845121118890406,
            -0.37893619456742433,
            0.5756765606887017,
            0.05268102735842644,
            -0.032182288510991065,
            -0.2836266365813242,
            -0.48076400370294453,
            0.503388508486947,
            -0.7543411234140841,
            0.5374612515162689,
            1.0247224645784192,
            1.020940248504105,
            0.4062526869463195,
            -0.5014338373956387,
            -0.48543670555826046,
            0.27937213556669926,
            0.480768544031522,
            -0.7700344249722078,
            -0.8434627762746376,
            -0.7061631262516015,
            0.028066562498403558,
            0.6043785312569409,
            -0.5777551351472946,
            0.007160676496416903,
            0.03836669169715884,
            0.7162726304952374,
            -0.3828231143789592,
            -0.8729867665814989,
            0.6057554409568779,
            0.20034663566784053,
            0.3042695951020245,
            0.5258844169842971,
            -0.31518498884473917,
            -0.715956061065124,
            0.12931078947096136,
            -0.08679047911880056,
            0.9864302185619472,
            0.796985637066404,
            -0.6265019739976504,
            0.005298043097515471,
            0.8519930403289475,
            0.7558636049363197,
            0.886035336891178,
            0.05324667372032649,
            -0.2175599023422875,
            0.7720301001181065,
            0.7182801637078997,
            -0.6243751911832152,
            0.5188403805206914,
            -0.12486231096454703,
            0.8061679030981717,
            0.45832959160907816,
            -0.6721340569487952,
            -0.5560701029043132,
            0.25087822563155676,
            -0.050792396247294425,
            -0.4077753692003811,
            -0.6871864435822178,
            0.6431950922080514,
            0.6715643268483502,
            0.19183425028648143,
            -0.26801045105607396,
            -0.7632762464644993,
            0.4760406004523092,
            0.9524283359658219,
            -0.29436208453557117,
            -0.35097159772324166,
            -0.27851789185766496,
            -0.5730342367084407,
            0.0918428442373866,
            -0.8058038630530636,
            0.6280877151152853,
            -0.05647656556517625,
            -0.11560476570207778,
            -0.9394152019973643,
            -0.651467239376553,
            0.30820549669016484,
            0.3262572606816747,
            -0.7768214142362868,
            -0.18148515533792262,
            -0.9766822630686928,
            -0.1863262609229794,
            0.7672836620104926,
            0.6834462882730447,
            0.011935219306406187,
            0.5865457804385763,
            0.16472145836727944,
            0.17624122681919893,
            0.6443815576917306,
            -0.10262939637623872,
            -0.6963603670037395,
            -0.5755348649435982,
            0.0853673311228405,
            0.7379814372551721,
            -0.5573818294358276,
            -0.01844403620022565,
            0.7958823257382878,
            -0.9604988668724911,
            -0.7528916228637784,
            -0.9870998889414865,
            -0.46310909482162277,
            0.6987167226628669,
            -0.5252784160377768,
            -0.313716008060704,
            0.9073728614001269,
            -0.45716788756828475,
            -0.8143352487867165,
            -0.72461955562995,
            0.5290214585204073,
            0.38154073791267706,
            -0.4000543590755104,
            0.9102331485511921,
            0.03236877509828419,
            -0.2509139740348828,
            -0.6689505425756602,
            0.7933898841394522,
            0.9933409045531203,
            0.19826188897833194,
            0.8603158934713859,
            0.12980585465619784,
            -0.9048493521526313,
            0.9588138769017743,
            -0.1943566620537258,
            0.24824031352514606,
            -0.531079233769386,
            -0.603126488554062,
            -0.7337404749437131,
            0.20146449655266324,
            -0.05148430096281512,
            -0.19967544058628012,
            -0.30204814143629655,
            0.9807600397832035,
            0.17189054458559694,
            -0.6491356099257634,
            0.11104910039067852,
            0.444392020734951,
            0.1844864428057261,
            -0.38875327272177934,
            -0.4856993778320129,
            -0.5226962694437203,
            -0.07407458093055588,
            1.0940575310537406,
            0.9788429571507044,
            -0.45485871800842137,
            -0.615671225692192,
            -0.21372912513960873,
            0.877794542431715,
            -0.1721699501978777,
            0.48899662906225533,
            0.5854431226176723,
            -0.7497411223720019,
            -0.4868112540484742,
            0.9355594651253473,
            -0.9336585751515148,
            1.0217397500185403,
            -0.7910895277946386,
            -0.753068872806392,
            -0.8949053175841557,
            -0.9707350564098232,
            -0.14331713000675594,
            0.9678322281430218,
            0.055088441862978156,
            -0.654272552044713,
            -0.8178085267351557,
            -0.9505266082414796,
            -0.010976425346099324,
            -0.8383948626210646,
            0.47759311436096924,
            0.8485768208661851,
            0.6416750423549873,
            -0.8198755949482347,
            0.9416384258310696,
            0.8909856324500535,
            -0.7027727961635905,
            0.4292138398432242,
            -0.29077026138393103,
            -0.7332302680522464,
            -0.8594648326577214,
            -0.8852163478302632,
            -0.033832240010429754,
            -0.19982677248496775,
            -0.9592327750583501,
            0.8843841275059777,
            -0.21918291940243498,
            0.1171790757089348,
            0.010437590503470595,
            -0.4372386265282895,
            0.05003888832783976,
            0.11053925779375384,
            -0.7203635053326849,
            0.8752452517818957,
            -0.4258171782202366,
            0.6542511487532582,
            -0.4324868473478584,
            -0.523852195904922,
            0.39663354602845446,
            0.312400809790772,
            0.7063761545030504,
            0.38526377147035157,
            0.9648919425338818,
            -0.5929505434886705,
            0.8554264322988547,
            0.48066095060677944,
            0.4468544585240417,
            -0.6275977339632419,
            0.272512883757765,
            0.4333588518032881,
            0.6088054079402716,
            -0.551790662060591,
            -0.6581042503165982,
            0.6756278388054593,
            0.9456997618770898,
            -0.4028241445896068,
            -0.978803223879418,
            0.4782011396725798,
            0.6685417686302866,
            -0.40897819119764645,
            0.8825796059513132,
            0.2681275063267413,
            -0.859726152556082,
            0.22726167314017445,
            0.45817489579119974,
            -0.5393743390912484,
            0.7793091914491036,
            -0.38923305120408896,
            0.6551257926578005,
            -0.8663415339678068,
            0.21078111005505656,
            -0.35578679409144687,
            -0.18137938921001803,
            -0.282053816522177,
            -0.6751234940239036,
            -0.2801969110890769,
            1.0087936837148508,
            0.8670302149777946,
            0.9244450709980024,
            0.44710349820684425,
            -0.6936596152845667,
            -0.3316684476370891,
            -0.1636350498611517,
            0.993231001793901,
            0.009180428609589005,
            -0.1886384246445234,
            -0.6382206003115278,
            0.033331347456353466,
            0.7339453426689572,
            -0.7571449278370253,
            0.6096560424229331,
            -0.7161041255271557,
            0.31485382156899944,
            -0.854012106520458,
            0.2623288483424412,
            0.08738452913654761,
            -0.7582526249524278,
            -0.44820422651435615,
            -0.6580631391157223,
            0.1911302969105765,
            -0.7849507310102638,
            0.8019849420843623,
            -0.01761085869636058,
            -0.2284095968778475,
            -0.6215772311845468,
            0.49971648537571417,
            0.8358557220278676,
            -0.6658424548431567,
            0.7582844764617964,
            0.7887831418023946,
            -0.20407539632037416,
            0.024079655334360336,
            0.9568784744299714,
            0.6886433662766829,
            -0.7240252479773495,
            -0.19647702790107102,
            0.2767441342994593,
            -0.2650697590251161,
            -0.1865773380104114,
            0.663079846172508,
            0.8519870531748172,
            -0.3953859644931767,
            0.490527806284981,
            -0.30714867069563706,
            -0.7033595821014413,
            0.25999812176195275,
            -0.8170734311061064,
            0.8738123913082436,
            0.22438005767579552,
            -0.9298713871839253,
            -0.3623056097695752,
            -0.9738505432250362,
            -0.028158389128914437,
            0.751359295869898,
            -0.5795925008871505,
            0.03394888548126535,
            -0.10238314002824689,
            -0.2713510080650396,
            0.34851246911417644,
            0.696696234663833,
            -0.10961489373641947,
            -0.20761995233292319,
            -0.6882793424457581,
            -0.3235819152387678,
            -0.5322198173283759,
            0.2997265978722514,
            -0.8489438570166503,
            0.5114786340228263,
            0.8135155824613653,
            -0.2716469241551228,
            0.137852661608282,
            -0.3006957994302602,
            -0.3570818705182865,
            0.9726994062110771,
            -0.5290687229188862,
            0.8612193536991978,
            -0.8390327047074916,
            -0.570967828714671,
            -0.3872439963903507,
            -0.42126379633616345,
            -0.6688765431074094,
            0.033655916231512026,
            0.651729471163143,
            -0.7325203922802997,
            -0.5887311366836117,
            -0.6585665729094123,
            -0.6537598642466563,
            0.9257743221041652,
            -0.5158913360454929,
            -0.7317333427548334,
            -0.7309634109913115,
            -0.500214755761764,
            -0.6608771765629247,
            0.1223422294123658,
            -0.40714968898405496,
            0.5847073345959347,
            0.7686740915135335,
            -0.8332759408817181,
            -0.7091012459571199,
            -0.736830050565181,
            0.38748095607418526,
            0.772476966014302,
            -0.7949502609841679,
            -0.8948435296912948,
            -0.711231151571636,
            -0.008719456497151423,
            0.7663998571606061,
            0.6436096695187995,
            0.7595801091389537,
            -0.4753836630487795,
            -0.17121004747463955,
            -0.7552277272200297,
            -0.596597779366261,
            0.8006826086747907,
            0.6279521038615268,
            -0.29373421131540556,
            0.6966534435555811,
            -0.561119620337641,
            0.4807673362645899,
            -0.0809679180150793,
            0.4781304496286185,
            -0.06839129509313792,
            0.685194288478414,
            0.813197283012166,
            -0.20412762456528352,
            0.35047236237308266,
            -0.998769726872626,
            0.3037666994041563,
            0.3437794197492746,
            0.8930448001140149,
            -0.2506032811814205,
            0.5616113446774268,
            0.045375236442659214,
            -0.7966957612918221,
            -0.4155697079445875,
            0.3792105632352861,
            0.19442716324243703,
            -0.541463571391171,
            -0.3934875680235978,
            0.6332417589589373,
            -0.038213190979812246,
            0.06600311735305087,
            0.254291135785091,
            0.10852638362285894,
            -0.022763654128768795,
            0.9610481373456081,
            -0.9772432996095612,
            0.801203995389071,
            0.78928709159398,
            -0.31748951400679315,
            0.4658316438896822,
            0.730670724995381,
            0.495763514884861,
            -0.8376392651036396,
            0.7960683268274573,
            -0.28545681670310813,
            -0.37256472427529047,
            0.49019974195871807,
            0.9084524245757255,
            -0.40533741170625026,
            0.16816832412928473,
            0.799546773987734,
            -0.900161194791433,
            -0.15434647391285927,
            -0.43187411616732013,
            0.5321808303964488,
            -0.8955424364882362,
            0.9104227033265689,
            0.6517417828803498,
            -0.388819357497209,
            0.16416288197945295,
            -0.9425037238833518,
            0.9602974436276714,
            0.06506287110294395,
            -0.026445852455575736,
            0.1832047437698674,
            0.6516178180697731,
            -0.7791840207322844,
            0.04471690447342902,
            0.28606359617491334,
            0.3827880196482636,
            0.1999981870831112,
            -0.14911606647215345,
            -0.885136608263412,
            -0.31413594650625704,
            -0.677425708989862,
            -0.7531712744413167,
            -0.17399006688286542,
            -0.8185044504836357,
            -0.5947935970489376,
            0.48495857367436784,
            0.7764223853070589,
            0.9637323964824751,
            -0.6618706971884253,
            -0.953113157977356,
            0.4927010822247613,
            -0.253941082926076,
            0.32181889691542054,
            0.6032276707462094,
            -0.7052203996694242,
            0.277067493630059,
            -0.1563558753646177
          ],
          "bias": -0.03576354999382767
        },
        {
          "weights": [
            -0.6961624785973755,
            -0.7581190281291563,
            -0.5704524378137505,
            -0.17456477725741326,
            0.9648315050981235,
            -0.2833538564045308,
            -0.03381923266338882,
            0.19152634644432354,
            -0.5200186089192758,
            -0.21714430881855096,
            0.9273821561974365,
            -0.839862459340073,
            0.30442887939309626,
            -0.6731999857723585,
            -0.25707153954471784,
            -0.5215565451024498,
            -0.23040938317663295,
            -0.024399724454169158,
            0.3879453388861436,
            0.3302153116540205,
            0.5197062133010204,
            0.05968163850168562,
            -0.6455666045942785,
            0.4243626861585632,
            -0.7093063013356835,
            -0.7266653314286542,
            -0.2855969996003398,
            -0.5153006841148409,
            0.5500494568372254,
            -0.3691786147097589,
            0.03465415790929138,
            0.582992820355301,
            0.07211060057583807,
            -0.43417714928485895,
            -0.8610661471066621,
            0.5613640830801552,
            0.4692584071401802,
            -0.6575543134274469,
            -0.9222683182596405,
            0.18857833044492894,
            0.15640378531748977,
            0.6180359971441062,
            0.1682603254484104,
            0.49701032208384904,
            -0.7310410767305904,
            -0.2497311766950007,
            -0.40605898038928623,
            0.9537868294184739,
            0.03268914133012224,
            -0.2516426724011356,
            0.3804043338914067,
            -0.07704100632406319,
            -0.48468457963037204,
            -0.46452559217810396,
            0.9241766810477916,
            -0.25447608747325723,
            0.35311399822834955,
            0.7438069411150416,
            0.5960046633194689,
            0.8518924698809063,
            -0.3733128444711302,
            0.8971963673049719,
            0.49730875834798427,
            -0.906493598098127,
            -0.5052696363532398,
            -0.3473686211432174,
            -0.9521203407769532,
            -0.9291129369272837,
            -0.12175034780775723,
            0.24008234625798222,
            -0.7647374894536205,
            0.08387826258752039,
            0.322027261968379,
            -0.4256738373817428,
            0.051591841977255574,
            -0.27492543307257566,
            0.9885334720325174,
            -0.46879007105947174,
            0.16476024525038926,
            0.8096445923534414,
            -0.6151253544049691,
            0.635461814415373,
            -0.36364252736854286,
            0.17773916468492623,
            -0.45999133338267906,
            -0.7625837794152048,
            -0.6009842376862202,
            -0.2928775623886528,
            0.16314267874214883,
            -0.44350754344343013,
            0.1754041571083896,
            -0.03366894503782281,
            -0.4586781438545617,
            0.9070906261302737,
            -0.6426241368464543,
            0.11455865226372756,
            0.13620423452476405,
            0.19549399070025023,
            0.12275511963782441,
            0.9939942681902894,
            -0.6823627037912473,
            0.2986943881544076,
            -0.6908452331529145,
            0.29270869451584974,
            -0.730229528187679,
            0.8592464508699194,
            -0.4623447483224855,
            0.40811909260106616,
            -0.43285305007393027,
            0.7989275705972323,
            -0.5531776920755471,
            0.4063919591388081,
            -0.5389855595163322,
            -0.9935427756647193,
            -0.15287915640699334,
            -0.07618162547266039,
            0.4329306326894407,
            -0.44662755807573074,
            -0.9156501659559013,
            0.31071835415969995,
            0.8590555354216873,
            0.9571018357614304,
            -0.971088755787358,
            0.8246929312094656,
            0.7771396172223743,
            -0.0017175826187212982,
            -0.7199188153362489,
            0.38525680561578407,
            0.9185413177406613,
            0.5033191739480145,
            -0.9819277667503299,
            0.6735580178311952,
            0.8489843631393081,
            0.20597647180600584,
            0.8597050538732615,
            -0.7640542298576629,
            -0.3149994433040712,
            0.13803263800560672,
            0.8666122341279776,
            0.49188131252554923,
            0.53332342613079,
            -0.733097232296509,
            -0.888179324354504,
            -0.05168113526080969,
            0.34418807589944844,
            0.40315134999588187,
            -0.7169772764354325,
            -0.7843902978265231,
            -0.3404577429290672,
            0.07976211175479961,
            0.6833339860080512,
            -0.9273563573353318,
            0.6518471610620339,
            0.15683773802345474,
            -0.9643158138537592,
            0.25630126925132707,
            0.7103220890426922,
            0.30329335405743696,
            0.6830113966214474,
            0.5880742904278317,
            -0.3875989523674471,
            -0.8270860417319502,
            0.0012433033313884235,
            -0.9545890681186455,
            0.09929694508374856,
            0.7119355952043703,
            0.7052703821395905,
            -0.4291719705622177,
            0.21458173549251858,
            0.6086163814207404,
            0.9780368019134187,
            -0.8092761636309466,
            -0.9072634181467589,
            -0.5097246184484998,
            -0.6537565171997358,
            -0.6806987101580485,
            0.20459363027209745,
            0.993891660697892,
            -0.7572050127094769,
            -1.0220494704872747,
            -0.1995583564862085,
            0.743796816376238,
            0.47446281473101387,
            -0.7605230385040923,
            -0.5629429651452439,
            -0.473354512684264,
            0.4511795884058161,
            0.2733824745808779,
            -0.7815106686401833,
            0.6523177682906864,
            0.04361447061248523,
            -0.3663161427261615,
            0.4572319670988348,
            -0.5244060151191446,
            -0.051234770691694055,
            -0.6430024176606194,
            -0.45576475383488146,
            -0.8404127394796856,
            0.938432218951006,
            0.8517440232428221,
            0.27319638690741893,
            0.31333442720933297,
            -0.49769102535716153,
            0.9057211952302641,
            0.7734614767624108,
            -0.3997101978161459,
            -0.06699916689665485,
            -0.957722593914346,
            0.6317691523166047,
            0.6090980984286207,
            -0.7653806921522386,
            0.5024972460367494,
            0.41796478328878817,
            -0.7150031656498269,
            -0.36610363625119474,
            0.0970481037228842,
            0.09629324021837839,
            -0.9441768467759193,
            0.8889355516429298,
            -0.27456791189398766,
            -0.20884940607182442,
            0.6508122237212554,
            0.6521858908031942,
            0.5164278486035333,
            -0.615720240560574,
            0.368834819984343,
            -0.02073496595498884,
            -0.3306286924798957,
            -0.5832456676720548,
            -0.3901436393272509,
            0.05665701859945125,
            0.6934214544275691,
            -0.9313472705768902,
            -0.1843086533432327,
            -1.0548300376882076,
            0.0947908337545061,
            0.8463919496506415,
            0.07908540595174292,
            -0.8292826596035165,
            -0.3416613003429562,
            0.7509875351286148,
            -0.2209383288529033,
            0.0497506737137037,
            0.8439845413648505,
            0.44036570798423896,
            0.7084957614618742,
            0.5640580563680925,
            -0.10929398216943181,
            0.9113985922571965,
            0.7262286359321225,
            -0.4884452623402702,
            -0.2771423356039695,
            -0.7409626870339152,
            0.6384623815691852,
            0.6962031605971667,
            -0.20259926477529266,
            0.6948645388255216,
            -0.6246476423751964,
            -0.22262970947864333,
            -0.83074603827896,
            0.6226476449766313,
            0.6312131241787388,
            -0.2782136847607825,
            -0.34459529932468524,
            0.9227749980180109,
            -0.11222799072089824,
            -0.6105358284588877,
            0.15482780574389188,
            0.08397584010536255,
            -0.7424383315414377,
            -0.26258309633170507,
            -0.5175895099477743,
            -0.3704948433357253,
            -0.87909606692404,
            0.940383384015264,
            -0.14967498722850334,
            -0.8700318877268232,
            0.39847603745697824,
            0.970789085362172,
            -0.8434557082651817,
            -0.33692723835930294,
            -0.9212632913475626,
            0.7809914141371974,
            0.17475964760384505,
            -0.44980146143765387,
            -0.4696304504534114,
            -0.13428807461449477,
            0.3886501635445494,
            -0.26337344057631723,
            0.706184205244332,
            -0.4366095723190056,
            -0.7243143117303912,
            -0.7156370296974787,
            0.6830114617527164,
            -0.5047818412197015,
            0.41235446919727453,
            0.09890082649083244,
            0.7916376882240317,
            0.27360259234033973,
            -0.4901228250574469,
            -0.8970528706305076,
            0.003562531491859661,
            0.43720381549459947,
            -0.16254698198542528,
            0.042249789349212724,
            0.8380998320952758,
            -0.9606731898208068,
            -0.9740193059892239,
            0.6528379522300685,
            0.01988919292021052,
            0.8514959196561853,
            0.6553897283240024,
            -0.14514194289376706,
            -0.11995035548084691,
            0.08025678535052873,
            -0.5041060935181467,
            -0.9209194518547623,
            1.0518443192211806,
            -0.03654107401127609,
            0.38290201540285884,
            0.2956972246275142,
            -0.7684393198080807,
            -1.0352172438588072,
            -0.7680748556144392,
            0.9157184652969083,
            -0.39312402746033714,
            0.8198606280118467,
            -0.848661231888805,
            -0.70779847355702,
            -0.43645219162431936,
            -0.3372305335053716,
            0.0962913859046647,
            -0.6907936101884964,
            -0.368924781362951,
            -0.27995118291068655,
            -0.05536211567835814,
            0.5419282622455299,
            -0.6379357390823814,
            0.8027894625129683,
            -0.22776846157570896,
            -0.9703120968409156,
            -0.09127455604249901,
            -0.14248640780502067,
            -0.5962589275473003,
            0.9964009913248385,
            -0.6576154498037707,
            -0.48024547766103187,
            1.2447475678505808,
            -0.17443879732173778,
            -0.4588074510617665,
            -0.8622204051495038,
            0.6125910187035107,
            -0.09721591295242048,
            0.5533030381306594,
            0.4604975907603491,
            0.881102140385756,
            -0.8204885540600427,
            -0.8010787810540342,
            -0.8219277289075421,
            -0.03597941534961908,
            -0.6943810262482637,
            0.5021165224669648,
            -0.49243500075954527,
            0.8209274783809772,
            -0.5094419511705313,
            -0.1299617956256125,
            0.8419610782508467,
            -0.388493813795975,
            -0.7695032653666374,
            -0.6509003510906184,
            -0.11393097935159617,
            -0.784094747529103,
            0.4466861145507413,
            -0.12075457974940929,
            0.04056158698290235,
            0.5433533354158493,
            0.2935812550519656,
            -0.07892047590995833,
            0.7644693882881253,
            -0.27008887748687926,
            -0.5619828197930339,
            0.5578348135806229,
            0.13466706030813155,
            -0.407278729760814,
            -0.7416235400755131,
            0.29444786808854817,
            0.018840732075999587,
            0.2784925350879068,
            0.24555661423971142,
            -0.5038646651319669,
            0.9131102439452636,
            0.09714943835120482,
            0.2944175873375561,
            0.9151081711835654,
            0.49398325357386796,
            0.5240821283766205,
            0.03841611300375132,
            0.9994603255460496,
            0.8264237175022344,
            0.7534357368580822,
            -0.07781390232135779,
            -0.7739309750808657,
            0.05266359369836742,
            0.7149359915996655,
            0.5028397518840478,
            0.747338945483602,
            0.11941141800239362,
            0.09853198827184512,
            0.6428491841931575,
            -0.1964339854248963,
            -0.3413169061778567,
            -0.15643319360772684,
            0.2578397643757882,
            0.23277397600522168,
            0.743345814245175,
            -0.46568511176280264,
            0.5852543544497147,
            -0.0007609850564501184,
            -0.19645907899013837,
            0.021118734949931994,
            -0.811728242350207,
            -0.15924550481998523,
            0.6480039669747342,
            0.7476732621788238,
            0.3608351717414797,
            -0.36782937307062974,
            0.4321502589242362,
            0.23214312059346603,
            0.6808077968990489,
            0.5377846630782477,
            0.7864599335109974,
            -0.013777738447738155,
            -0.6686733766185058,
            0.354068362057102,
            0.5687118655246818,
            -0.9019007848862775,
            -0.23236978402577324,
            1.0600774225643912,
            -0.7391150051302087,
            0.5445429637385902,
            -0.03475100384947089,
            -0.37717360173345665,
            0.5525409005202647,
            -0.0266653752640737,
            0.6387020363741758,
            -1.0004742767990764,
            0.627610971328515,
            0.2719064831918634,
            0.8765748765112096,
            0.40246364613101626,
            0.22483703444280745,
            -0.34218271284124047,
            -0.7987873530931416,
            0.5813806402482528,
            -0.15642229973496694,
            -0.4241097766721327,
            -0.3695403339458829,
            -0.941502333364432,
            0.6481567981991971,
            -0.39175497689379213,
            -0.12547058686019374,
            0.11307835025423939,
            -0.6824169638264048,
            0.4668170102055258,
            0.2699118457830134,
            0.9896084099450625,
            -0.28815476143178387,
            -0.018065789133890175,
            -0.7476277632945421,
            -0.7087664318697666,
            0.860390968171316,
            -0.03977704998623177,
            -0.004571199079915068,
            0.32182518449435654,
            0.6001225141751545,
            -0.9016181440536359,
            0.3440490777781813,
            -0.7360655056881822,
            -0.46711518738898167,
            -0.637453170429721,
            0.886307428809859,
            0.4520956917575145,
            -0.8318780664374238,
            -0.5448791554461063,
            0.7253026329597967,
            -0.6265449676740151,
            -0.4535289717318407,
            0.7150285106732419,
            0.5184553523644414,
            0.21322738629009463,
            0.021668366904874094,
            -0.6705277549735568,
            -0.8703771510885487,
            -0.9553138874268392,
            -0.4010159608452546,
            0.5949936292026863,
            0.718704452608842,
            -0.5756129415605058,
            0.6100079806857124,
            0.8954486727008659,
            0.9631702354103107,
            0.536237786586179,
            -0.6065759530907002,
            0.39268452352033556,
            -0.06513481267403542,
            -0.9610961496367456,
            0.07064793360961946,
            0.6640474356022074,
            -0.3788437508850879,
            -0.7974622316869227,
            0.549504960540218,
            0.3828552730847813,
            0.01655379541718582,
            -0.5835379584953151,
            0.6716410014260925,
            0.02127137825647639,
            -0.9236646373688943,
            -0.4718062750533999,
            0.005455856957069831,
            0.2093112819518834,
            -0.3589780040428798,
            0.9683616460469276,
            0.20092519138761228,
            -0.3045883476892492,
            0.803638647682674,
            -0.03153998181360295,
            0.8027545776170619,
            0.47247081347914804,
            -0.023560630869364413,
            -0.10804657787781735,
            0.4653214710277369,
            0.18757684693722432,
            0.7775687575719652,
            -0.545064388080585,
            0.9610401184302184,
            0.37426320973848937,
            -0.37064938246825907,
            0.864413470189969,
            -0.7141505978319592,
            -0.374128783847199,
            -0.09532709046449207,
            -1.04989695107814,
            -0.10303868215155808,
            0.31285601410960223,
            -0.5268678854919739,
            0.6212173367406604,
            0.36072461208238005,
            0.8114680426999121,
            -0.5882921494990767,
            -0.22776683666807532,
            0.7014847841659696,
            -0.3875387739451429,
            -0.8962756655721827,
            -0.9160676541834303,
            0.04407664620206364,
            -0.3692506084537412,
            0.8243870618093405,
            0.7963992333109188,
            0.5884942499216437,
            -0.5051162075729068,
            0.9183528437549984,
            -0.8724735132186545,
            0.6038562310467908,
            -0.7360749597442725,
            0.9321739818446334,
            -0.037677131218854125,
            0.2887218525013576,
            -0.5699692193726592,
            -0.18732528583918934,
            -0.2373260797248318,
            0.959460113009544,
            0.9028359238417174,
            -0.4086310565750243,
            0.35737992893336684,
            0.313548405980657,
            -0.5105584205893763,
            0.6368925598196512,
            -0.0677968704511694,
            0.8906825171931771,
            -0.10125683929040853,
            0.8149000366306647,
            0.15244682708223853,
            -0.15567669874794351,
            -0.09242016951737186,
            -0.31290976828257794,
            0.42027221204291804,
            0.3812261050468584,
            -0.22826876724453316,
            -0.33094298206085027,
            -0.31362476880712165,
            0.2700332856859355,
            0.26580417763493974,
            -0.32982714723308343,
            -0.7481591746699086,
            -0.5534277366318162,
            0.5035197108638029,
            -0.32578151520297527,
            0.15191644735550236,
            0.12853667032839936,
            -0.9378877356311739,
            -0.6915418800433001,
            -0.19092715700859705,
            0.24522372102781692,
            0.6254906219706399,
            -0.55083955650625,
            0.5141079276818258,
            -0.2925073553367818,
            -0.5311940518059546,
            -0.7971728176249826,
            -0.03898485254878539,
            0.3099880384222645,
            0.2748806417958512,
            0.7609140651240139,
            0.8662402810396852,
            0.03810609496802723,
            -0.8469189454787904,
            0.314598617609668,
            0.2905173589938024,
            0.810654199803536,
            0.6785775321036162,
            0.42303552439591185,
            -0.35066117003421027,
            -0.34546292773512355,
            0.4387100302996193,
            0.9143240432139453,
            0.4613594136738548,
            -0.09212686237169782,
            -0.8095617260666249,
            -0.3293759711248871,
            0.7258126430921196,
            -0.38228222185688876,
            0.6700425094397976,
            -0.68587938352612,
            -0.7524664889049898,
            -0.805649372148872,
            0.6520608694973826,
            -0.5304357134185836,
            -0.49443080761392805,
            0.9310192777022431,
            -0.3128872470824093,
            0.4291468345689865,
            0.132782069405353,
            0.09848420202596588,
            0.7480759061268432,
            -0.8395573438787496,
            -0.2197125771435542,
            -0.32558128123323815,
            -0.009226978827589147,
            -0.6986417380146349,
            -0.6687223819401698,
            -0.3433468619428574,
            0.7475825583615247,
            -0.7323199779284866,
            -0.19146294694586952,
            -0.26505770516219146,
            0.7429356270016232,
            -0.9576653562759259,
            -0.24913289351518308,
            -1.035505192623483,
            0.2107656950891606,
            -0.12394701872364111,
            0.1940219018357641,
            -0.5746792692870942,
            -0.16935170196026858,
            -0.4154861735719294,
            -0.8482527444459097,
            -0.16106741657207216,
            -0.8243805024667907,
            0.9023500664149982,
            -0.2554414921665391,
            0.5752309314671133,
            -0.22396946910829652,
            -0.22568493158437075,
            0.6578619074895176,
            -0.5128220231724394,
            -0.38572007954950205,
            0.7102940627404863,
            0.6435180587212035,
            -0.5130732617252234,
            -0.6921134307327715,
            0.002589013130041322,
            -0.3977233754459925,
            -0.10594958420518959,
            0.2946280077065711,
            0.5704130081645173,
            -0.05276886835118018,
            -0.6879595106011775,
            0.07240990854323204,
            0.28593964855064746,
            -0.35297301486013155,
            0.13519491954079832,
            0.071929840823761,
            -0.2759403721703298,
            -0.9654502747721599,
            0.4533042942546452,
            -0.5797118063899053,
            -0.5733636230745762,
            -0.8567657056202165,
            -0.8952593415680892,
            -0.1322995571630734,
            0.9326611953789941,
            -0.2423894474902364,
            0.3225494016118011,
            0.6240601220220596,
            0.18287348038820853,
            -0.7884669798548071,
            -0.45686742841421746,
            0.17370874516084495,
            -0.8253504328928967,
            0.9852251480576477,
            -0.02226540343693859,
            -0.9916183142297009,
            -0.7473372582094878,
            -0.2856549091107978,
            0.5702283819990601,
            -0.30784183833272905,
            0.21722795998410918,
            0.10175511374391909,
            0.38007244329540285,
            0.5824040175420174,
            0.8331320910873974,
            -0.34277424086731134,
            0.5157826060350603,
            -0.015822667309448146,
            -0.5722533378383639,
            0.23597498708720277,
            -0.6496347150073813,
            -0.2306080306020919,
            0.0683247503959652,
            -0.5721881724628186,
            -0.9141228902078862,
            0.863649192489564,
            -0.11671024137493777,
            0.5788163305761296,
            -0.5609206434340307,
            0.10271426475855973,
            0.365954136298019,
            0.31382597520616784,
            0.6230957490949524,
            0.6129564556648767,
            0.4389286963779257,
            -1.0253860827636858,
            0.3077407356307421,
            -0.27446268740262814,
            -0.0919687600994228,
            -0.3263065050048761,
            -0.41304675494703247,
            0.747642274145273,
            0.18602904747526486,
            -0.6726520527066396,
            -0.260713130065507,
            0.7320946852305183,
            0.38766245780825126,
            -0.3463775520122645,
            0.45656212445413247,
            -0.528952876504382,
            0.9129983064723166,
            0.784350675485646,
            -0.6085612451348565,
            0.8311698996571597,
            -0.5695264442666579,
            -0.20414974959180637,
            -0.5031812597456554,
            0.009822692369614453,
            -0.07877444445822758,
            0.930294755596498,
            -0.17028057823226103,
            0.1040253531366691,
            0.549224567135535,
            0.27959368261466433,
            -0.8393441251401629,
            0.5729032913128114,
            0.21517073286023536,
            0.14881463673801476,
            0.22323158176077115,
            0.3344695935172593,
            0.7927701061934544,
            0.369668693018822,
            -0.5741676123226167,
            0.26571398584303063,
            0.462618633828622,
            -0.7118405719826215,
            -0.556020819576609,
            -0.2656232694056422
          ],
          "bias": 0.031213638025981084
        },
        {
          "weights": [
            0.4474725421267327,
            -0.3035090580809796,
            0.1520179389825671,
            0.4306405757545295,
            -0.5649199300867433,
            -0.47660356544143667,
            0.007183065308580927,
            0.5302348153605474,
            -0.6908008114912074,
            0.334813429589111,
            -0.24076654352317917,
            -0.6108474785196547,
            0.3111555494357636,
            0.7221339442290806,
            -0.11350726078048701,
            -0.09134916090795797,
            0.2003971604305561,
            0.9369790796433566,
            -0.7253839248483793,
            -0.132192913572571,
            -0.9201189819305089,
            0.8310917758381384,
            -0.33640391690831106,
            -0.37201739946469625,
            0.545467079852918,
            -0.8097060789163824,
            -0.9277062818479473,
            -0.6336049437617497,
            0.32887281267336843,
            0.0825042859116134,
            -0.27693927651009775,
            -0.6776916987589907,
            -0.378323739048801,
            0.3709594697351317,
            0.6452315323915323,
            -0.6646706247655687,
            -0.6334252743346367,
            -0.6074156255642806,
            0.18258810408864498,
            -0.9352951460394202,
            0.29041919495262825,
            -0.3993195708238191,
            0.7573758258019876,
            0.9596361186425525,
            0.6298364706529377,
            0.21258841898790917,
            -0.7919227322019304,
            0.4980497940808766,
            -0.24969511719266135,
            -0.9374521153218376,
            -0.5474003982724227,
            -0.22562615299126332,
            -0.6077431656696646,
            -0.044030387453734665,
            -0.46088837328001797,
            -0.20655766611455895,
            0.5768360880749004,
            -0.856817545333399,
            -0.9138231719781973,
            0.0377227342689721,
            -0.6860993728099045,
            -0.8385327529854374,
            0.7368008818319216,
            0.027681657516941627,
            -0.24438351626923915,
            0.009896131665977803,
            0.18509786120289937,
            -0.4660125388193138,
            -0.7738543018122284,
            -0.391511897841281,
            -0.7690248640493805,
            0.04666076907643619,
            -0.33836199257858235,
            -0.10862674215021269,
            -0.6756931101147843,
            0.7006280062897341,
            -0.40402889580170853,
            0.35698118818741187,
            -0.2731131754116488,
            -0.40381601702306036,
            0.6351982951819541,
            0.41801098791992874,
            -0.21901106162091,
            -0.7963557723870609,
            -0.6670757946737955,
            -0.2104765572466385,
            0.40910815802579004,
            0.30555116227550916,
            -0.2716047032811837,
            0.6554439456873686,
            -0.2992612567365786,
            -0.05217411620719305,
            -0.492764596460163,
            0.8953709997191623,
            0.5298112046808993,
            0.9143468170886756,
            -0.3520237315287144,
            0.612344187095145,
            0.4419652125037924,
            -0.37590826502085944,
            0.03242074737965015,
            0.2643044145409096,
            -0.6468611404469012,
            0.8658306107904494,
            -0.9114725771288694,
            0.6695777071612511,
            -0.3946199474396729,
            0.3000538712421246,
            -0.8338210598206357,
            -0.09870105940851825,
            -0.5336600861858212,
            0.5446814422793742,
            -0.9511697364160996,
            -0.545238262225,
            -0.8526403469404555,
            0.4623326247262436,
            0.6461102918453389,
            0.45423375291238816,
            0.2039218752062003,
            -0.46087577538822216,
            -0.9418138946122813,
            -0.3397730188519959,
            0.9260870455690585,
            -0.5938932843600561,
            0.5682789896075549,
            -0.7567359030168255,
            -0.6203414735508433,
            0.33584328036980066,
            0.4120362873901829,
            0.5374816926095427,
            0.34271778141924214,
            -0.5187132441961986,
            0.024164180661352078,
            -0.26228183902151997,
            -0.2095381964708227,
            -0.6945564318601952,
            -0.7203664385725866,
            0.9564206593648463,
            -0.8394830700287019,
            0.3718422068954732,
            -0.5378266570789134,
            -0.8054083470749049,
            0.3234971860959619,
            0.13946563416412142,
            0.9209558382035627,
            0.7808552135611511,
            -0.9726633271361013,
            -0.9839778743858424,
            0.22849770636886416,
            -0.16121041806653433,
            -0.13828702215318378,
            -0.7657339847728014,
            0.6845867709989517,
            -0.09267291159314245,
            -0.18409144956294218,
            0.12577135451704077,
            -0.3154812725549416,
            -0.8801063741465832,
            -0.3689425955744848,
            0.5593439727937247,
            0.7965451596136304,
            0.4378721276690566,
            0.720878969953672,
            -0.9904229848119633,
            0.8209629523323095,
            0.38758686937136244,
            -0.4872907635552844,
            0.0053392505886113995,
            -0.5650809133362669,
            -0.8020684263700342,
            -0.7673058032877866,
            0.08367941004653064,
            0.2595567778506921,
            0.022695035073234664,
            -0.34824887116401115,
            -0.034729139077485566,
            -0.07087279737057832,
            -0.9074989058557534,
            -0.4125757178717489,
            0.9211939708502036,
            -0.5846788989935842,
            0.08909364339445926,
            -0.23002092565020374,
            0.914808157520303,
            -0.7534197203045511,
            0.9548613920784861,
            -0.923538560340084,
            0.23366840613937295,
            0.6136167404756776,
            0.4595385037536457,
            0.9142924501219382,
            -0.579959271882761,
            -0.7096496910471765,
            0.5635992502177187,
            0.09650744116480073,
            -0.8216749186303407,
            0.42408804248818277,
            0.2227795685187286,
            0.8372170203149311,
            0.4755691017808713,
            -0.750475975621545,
            0.805038349254346,
            -0.43139176039949323,
            0.2509818650880972,
            0.44754335645373405,
            0.5284804268936218,
            0.8901769992806285,
            0.30781672316099185,
            0.24674056887425827,
            0.7772163114836759,
            -0.0024616971526810793,
            0.6010776420116626,
            0.7521152680215712,
            -0.944264020710298,
            -0.41030287449173464,
            0.7518168333348567,
            1.0187695666926488,
            0.08119458295428801,
            -0.5024262954239945,
            0.763395194552709,
            -0.812350174840713,
            0.07330626902412898,
            -0.08448550051428366,
            0.900828091494222,
            -0.9655858245467783,
            -0.3051136289003018,
            -0.6686012581095985,
            0.4227206156502497,
            0.31465460008039037,
            0.3520800405521893,
            0.1884833436561365,
            0.733185251132333,
            0.044417024138371924,
            0.2958435923873745,
            0.4234003461477612,
            -0.022936641705567737,
            0.7470699108976905,
            -0.6424299224287622,
            0.28701832335968275,
            0.8938187684708356,
            -0.07367214620771419,
            0.8497120640516225,
            0.5712029686773759,
            0.714901435777439,
            -0.03674023519011959,
            -0.7092669282711915,
            0.1081661479634609,
            -0.9137367644702671,
            -0.9044260136603273,
            -0.1246601291131058,
            0.26833512192388653,
            -0.7019164778516847,
            -0.5536144402892489,
            0.21203728370080444,
            0.4944929987215876,
            -0.47730655144515133,
            0.5624711995262415,
            0.9195510360206952,
            -0.8131414507683763,
            0.2657217384358901,
            -0.09292411539363965,
            0.8190504154511224,
            -0.140942993796929,
            0.8959689625308253,
            -0.2547920880780011,
            0.6959620833476801,
            0.7726187223567285,
            -0.06779626824416499,
            0.5278350783604633,
            0.9241352822447922,
            0.6307818233882112,
            -0.18530373291592242,
            0.08845734492597555,
            0.15648315026912682,
            -0.7586344310303446,
            -0.5312998092763187,
            -0.8162115932061017,
            -0.35473604137482,
            0.396653921333685,
            -0.7974999003851753,
            0.010459700602011068,
            -0.7448910973849092,
            0.7651365147101769,
            0.7642553028045951,
            0.6890546686661506,
            -0.4944306408459807,
            0.4672865857518909,
            -0.9159698244243576,
            0.7052215310439431,
            -0.6884318578107447,
            -0.0808899811111156,
            -0.8670094671831011,
            0.37980862738475807,
            0.3077649655479499,
            0.8956970301675153,
            -0.7867059591964332,
            -0.07829513534848696,
            0.2665153781990125,
            -0.19730077139773522,
            0.9426133151340791,
            -0.5857788523678953,
            -0.09075646242480885,
            -0.8433326944161414,
            -0.34075923051529017,
            0.08567529771689511,
            0.9185729629763976,
            -0.3472193640236516,
            0.2842414402042135,
            0.016641726005233615,
            -0.6682815438015559,
            0.8700042432484503,
            0.8692910459011377,
            0.6158845614933851,
            -0.6159716556974676,
            -0.9724698411859005,
            -0.4934129566667217,
            -0.6060458336699783,
            0.5487540277972148,
            0.8685619739808053,
            0.6253586506864489,
            -0.05387763087357539,
            0.8391167365613265,
            -0.0655279845013278,
            0.42117675519641473,
            0.3355193824332514,
            0.2112978319368967,
            0.5621243360239181,
            0.7118612176064659,
            -0.39291034103704814,
            -0.8139327229395842,
            -0.26791840452116195,
            -1.0009298662757447,
            0.7301876876065421,
            -0.4989182757315558,
            0.050318164123418524,
            0.8796098744281899,
            0.9254401927581464,
            -0.9957616269485332,
            0.37446602533161055,
            0.27895076226903376,
            0.5782222624401745,
            0.5582450958313754,
            0.8383414554381592,
            -0.3734521749252372,
            -0.8127448130478326,
            -0.7650943502872155,
            0.1821238720610928,
            -0.9381206967295866,
            -0.5187119373755181,
            0.650644465001119,
            0.2886707619190718,
            0.3450417260369771,
            -0.44350361701433366,
            -0.426241141541243,
            -0.7466849709482272,
            0.4977651087382133,
            -0.8766471727724542,
            -0.14837709118081663,
            0.8271261918155492,
            0.49777707680526667,
            -0.6740724313836202,
            -0.5788948528525377,
            0.3483531376624483,
            0.27603798582598893,
            -0.3512221902755588,
            -0.35939511504966926,
            -0.45763334564823166,
            0.6691245309470788,
            0.9183826572741343,
            0.5364818605728414,
            -0.3557108775000813,
            -0.17476376385694684,
            -0.7508214781530252,
            -0.34356049333380123,
            -0.44728648073289734,
            0.85826727084216,
            -0.5462776324325714,
            0.2653349009885755,
            0.4002992440406444,
            0.5389569733061281,
            0.771447957753469,
            -0.22989135209424513,
            -0.33686900239539663,
            0.13979485174370526,
            0.8980623962028749,
            0.495648065765204,
            0.4912904481470904,
            -0.2887244330418795,
            0.031993647730889585,
            -0.8027397063254331,
            -0.24627777813903984,
            0.7324692355607749,
            0.9153583725649637,
            -0.5408241579510544,
            -0.9344416190565319,
            0.0006754489478272205,
            0.035189761444024484,
            -0.8657736305403156,
            0.21344563064513433,
            -0.8012167421266914,
            0.306107453470564,
            -0.09201057427083506,
            0.1870912956168394,
            -0.9515315747916544,
            -0.4257597456709631,
            0.3224614632298501,
            -0.9523493196748538,
            0.4645279410552512,
            0.9951144229718988,
            -0.5779523692240892,
            -0.015863009421532778,
            -0.21889154488051837,
            -0.26342826776390266,
            0.30692550347202074,
            0.8313609985187947,
            0.6613635652979205,
            -0.4739952434754873,
            -0.3654321426870015,
            -0.054133550279405085,
            -0.7913975238199407,
            -0.11868522741299259,
            -0.9760323973133085,
            -0.9196215927718483,
            0.8276544501879043,
            -0.11101079201349039,
            0.706353024490374,
            0.6006665190775178,
            0.5433095384594039,
            0.08724742416532161,
            0.9022715520194156,
            0.3400809315773843,
            0.417184253195807,
            -0.13051872754823676,
            -0.5627007893423495,
            0.7704140986767808,
            0.909306915900791,
            -0.8546959403236405,
            -0.55335304525296,
            -0.6037024917349465,
            0.017391704269542358,
            0.9487865732059486,
            -0.9013052454224144,
            -0.7741735872678384,
            -0.5506657857173375,
            0.5818958562123209,
            -0.11967796110335216,
            -0.527256774989261,
            0.33606550752591313,
            0.6355274383662908,
            -0.5463063117991731,
            -0.05327234939434078,
            -0.9940484747148848,
            0.80001896653025,
            -0.35055819186382875,
            -0.8743704772441352,
            -0.11189617052130868,
            -0.7658131439106785,
            0.6909168992038368,
            1.0133042659208136,
            0.0356421999154942,
            -0.8685815452199293,
            -0.6024828164649125,
            0.07938373659289696,
            0.24488806477994673,
            0.22008773291002676,
            0.6570624410712409,
            0.31970707084897615,
            -0.46618124764695423,
            0.32776609178849797,
            0.7011655768687712,
            -0.16708613466141325,
            -0.9526994469659521,
            0.02187306485215106,
            -0.8861491801972435,
            -0.08770941438993844,
            0.4996725969263076,
            -0.368567559977365,
            -0.5390637313539548,
            -0.38623493421733474,
            0.893718447240569,
            -0.28834522002787016,
            0.44731775165244575,
            0.24079328546711476,
            0.6194051263842079,
            -0.560689631064708,
            -0.14335112891258917,
            -0.7340579162984406,
            0.24947837961344693,
            -0.7071794072482036,
            -0.07950587826126543,
            -0.021229150578449665,
            0.8413240154497506,
            -0.8260030470944594,
            0.6208605551365374,
            0.09962300664705084,
            -0.9936192032241546,
            -0.8114027115591499,
            -0.0631348399918531,
            -0.572054664709988,
            0.7177260263811276,
            -0.49269896135345037,
            -0.2227935915631348,
            -0.10490052286454343,
            -0.035745044664176495,
            0.07190358712269895,
            0.00018392724053106768,
            0.20999594104980246,
            0.005326523084420589,
            0.9431113592454409,
            0.6504824964557289,
            -0.4970644971684044,
            0.8094245897563485,
            0.17254158403466546,
            -0.028440372997155065,
            -0.2718931096667021,
            0.3023585643323696,
            0.467507627234404,
            0.558043611593882,
            0.42635577121319823,
            1.0069783478640628,
            0.5287240214515059,
            -0.8153782751262638,
            -0.20031557958900378,
            0.537306079762969,
            -0.48702832428324694,
            0.6696611489947876,
            -0.9124081377258846,
            0.9519569215736421,
            0.6221439265827964,
            -0.014825125557250294,
            -0.48454977530522814,
            -0.6062419288642993,
            -0.49206705147246965,
            -0.4109999611928903,
            -0.42597262838620864,
            0.7706256238187243,
            0.8125819561263266,
            -0.5794640331798157,
            -0.7383376103874599,
            0.27948026709076795,
            0.8409680015083811,
            0.07923368608553638,
            0.48471790630472317,
            0.01918581531611156,
            0.1032365414715681,
            0.7353305707147101,
            -0.8556057672762687,
            0.3302489062938155,
            -0.18618857432890298,
            0.20514745911084786,
            0.7625363704340048,
            -0.31820385425938125,
            0.7850097835674936,
            -0.171461582274667,
            -0.8461282654122314,
            0.16262831643959666,
            0.45386080927555367,
            0.07780792949233165,
            0.4492720462275477,
            -0.7819320749346717,
            -0.6295837042797898,
            -0.9669923328550369,
            0.07782717241211598,
            0.048639570809398354,
            0.05201673745118248,
            0.07295167235022608,
            -0.8397942085757811,
            0.47143489685770057,
            -0.16601205549368417,
            0.765988726014576,
            -0.3127709997948798,
            0.1088181814149874,
            -0.8730638812051463,
            0.25486824641859235,
            0.7718880450162188,
            -0.251669871589643,
            -0.7617156158474622,
            0.05365619573508002,
            0.16696429967329798,
            -0.7252904568147941,
            0.06105499865844326,
            0.22045676478170664,
            -0.3114710071551417,
            0.8984204324784296,
            -0.4440338580509125,
            -0.12061478649754774,
            0.013530436478706732,
            -0.7459338145654395,
            0.6433554770457979,
            -0.5773118093835368,
            0.8319102465779497,
            -0.42482148437859657,
            -0.8004370426755162,
            -0.2119883824896426,
            -0.7938154115873914,
            -0.5163297279267532,
            -0.4337333257489815,
            -0.07641341271270681,
            0.29829695621875113,
            -0.8460531845448457,
            1.0125453212408575,
            0.8609653628514712,
            -0.7919863619592916,
            -0.687591949860074,
            -0.14173631268146894,
            -0.32212131221021834,
            0.23839247138083636,
            0.2853606045135563,
            0.8133622253372506,
            0.4355320131402566,
            0.613827934094691,
            -0.4064748464790634,
            0.2127799410795375,
            -0.010059823040704241,
            0.35816237769559667,
            -0.34696423931132947,
            -0.8378541941048532,
            0.4970926185611697,
            0.964807809675477,
            0.5732781241257564,
            0.15894232721990226,
            0.308707383129907,
            0.7752379926919413,
            0.7888721614815969,
            0.8730565321790413,
            -0.4908010433730486,
            0.7349801440239643,
            0.13499145698643064,
            0.7906881031278427,
            0.10011350915462547,
            -0.9343683788162657,
            0.9176833201894495,
            -0.8016820172809527,
            0.558661865919251,
            -0.1347838313904033,
            -0.9226481374947987,
            -0.7962673271041539,
            0.026575932679249053,
            0.32403545836560815,
            0.6451578789059641,
            -0.5422683550799015,
            -0.29934736544442503,
            -0.9309688920686457,
            0.6490448735829095,
            -0.3441415948668538,
            0.06035233228312342,
            0.28793703072733434,
            -0.4187876742330053,
            -0.19283474016472774,
            -0.08489366611893927,
            -0.032368839882035,
            -0.08446483448510182,
            -0.5949799159173862,
            -0.10615384379250896,
            -0.5990934942997396,
            -0.17942699154627204,
            0.46041865862567166,
            -0.05389528169724348,
            -0.8596884492651528,
            0.6165931867125142,
            -0.15274648749873987,
            -0.04437249044500688,
            0.5670990666386145,
            0.9687902468375109,
            0.9049209689032095,
            -0.6648840152825567,
            0.3329697434170112,
            -0.6420712874215335,
            0.8738759721802257,
            -0.547675375159437,
            0.26912390101953787,
            0.593871198204714,
            0.03696558884304002,
            0.5632337337615072,
            -0.963158778772337,
            0.33970184180735263,
            -0.34573205374096855,
            0.28907891367240085,
            -0.07243983909071386,
            -0.6946474954302119,
            -0.778700408775822,
            0.6907053985457544,
            -0.28454260342723625,
            -0.2201615617132637,
            0.026491547482660187,
            0.5281196742452375,
            0.13234136156860263,
            0.008449633451021312,
